// #### Generated By: http://www.cufonfonts.com ####
/*!
 * The following copyright notice may not be removed under any circumstances.
 * 
 * Copyright:
 * Copyright 2015 Adobe Systems Incorporated. All rights reserved.
 * 
 * Trademark:
 * Please refer to the Copyright section for the font trademark attribution
 * notices.
 */
Cufon.registerFont({"w":310,"face":{"font-family":"20thCenturyFont","font-weight":500,"font-stretch":"normal","units-per-em":"1000","panose-1":"2 0 6 6 2 0 0 2 0 4","ascent":"800","descent":"-200","x-height":"9","cap-height":"1","bbox":"-11 -715.013 1061.06 182","underline-thickness":"20","underline-position":"-113","stemh":"120","stemv":"120","unicode-range":"U+0009-U+0131"},"glyphs":{" ":{},"\r":{},"!":{"d":"123,-623v34,0,61,25,60,60r0,340v2,38,-29,65,-63,65v-32,0,-56,-23,-56,-58r-1,-347v-1,-35,27,-60,60,-60xm119,-124v35,0,64,31,64,65v0,34,-30,64,-64,64v-34,0,-65,-31,-65,-64v0,-35,30,-65,65,-65","w":244},"\"":{"d":"302,-651v33,0,60,25,58,60v-5,87,28,220,-60,222v-34,0,-61,-27,-59,-62v5,-87,-29,-217,61,-220xm114,-651v33,0,60,25,59,60r0,151v2,41,-27,70,-62,70v-32,0,-60,-26,-58,-61v6,-87,-29,-217,61,-220","w":427},"#":{"d":"449,-577v11,-70,122,-53,119,12v-1,28,-12,52,-17,78v54,-7,93,14,93,60v0,33,-25,60,-60,60r-187,0xm244,-577v9,-70,125,-53,118,12v-8,70,-32,131,-46,198r-175,0v-35,1,-60,-27,-60,-60v0,-33,25,-60,60,-60r81,0xm37,-198v0,-33,25,-60,60,-60r193,0r-54,214v-10,71,-122,53,-118,-12v2,-31,12,-54,18,-82v-56,6,-100,-10,-99,-60xm447,-48v-9,70,-134,51,-119,-12r47,-198r175,0v35,-1,60,27,60,60v0,34,-25,61,-60,60r-81,0","w":672},"$":{"d":"322,-445v98,21,152,43,155,141v3,91,-55,143,-155,165v4,54,-63,77,-100,46v-13,-11,-19,-25,-20,-43v-41,-10,-137,-20,-137,-81v0,-32,26,-65,58,-63v27,2,58,20,79,22r0,-90v-98,-21,-147,-66,-147,-135v0,-83,49,-136,147,-160v-1,-35,27,-60,60,-60v37,0,57,18,60,53v56,9,127,18,129,77v0,31,-27,63,-58,63v-14,0,-61,-18,-71,-19r0,84xm202,-473r0,-51v-27,12,-37,41,0,51xm322,-266v38,-14,50,-49,0,-59r0,59","w":527},"%":{"d":"468,-300v90,0,168,78,168,168v0,90,-79,167,-168,167v-96,0,-180,-83,-166,-190r-52,119v-20,62,-117,38,-115,-22v0,-9,1,-17,5,-26r119,-272v-107,86,-270,-2,-270,-133v0,-90,78,-168,168,-168v87,0,161,71,166,152v24,-41,29,-116,88,-117v42,-1,76,41,57,85r-130,299v33,-41,77,-62,130,-62xm157,-442v26,0,47,-22,47,-47v0,-26,-21,-48,-47,-48v-26,-1,-49,22,-48,48v0,26,22,47,48,47xm468,-85v26,0,48,-21,48,-47v1,-26,-22,-49,-48,-48v-26,0,-47,22,-47,48v0,25,22,47,47,47","w":674},"&":{"d":"569,-379v33,0,60,25,60,60v0,57,-15,109,-45,157v26,31,78,52,82,101v4,50,-63,82,-102,45r-62,-58v-74,57,-149,86,-226,86v-136,0,-248,-71,-248,-199v0,-73,49,-134,107,-153v-52,-31,-78,-76,-78,-135v-1,-111,105,-159,227,-158v124,2,199,39,210,135v4,32,-31,59,-62,58v-30,0,-48,-15,-56,-45v-5,-19,-36,-28,-92,-28v-65,0,-97,13,-97,38v0,19,101,97,303,236v13,-25,19,-51,19,-80v0,-35,27,-60,60,-60xm405,-154r-169,-119v-59,36,-88,65,-88,86v0,53,43,79,128,79v38,0,81,-15,129,-46","w":693},"'":{"d":"162,-651v33,0,60,25,58,60v-5,87,28,220,-60,222v-34,0,-61,-27,-59,-62v5,-87,-29,-217,61,-220","w":287},"(":{"d":"158,-620v34,-49,111,-20,111,33v0,12,-4,24,-12,35v-132,186,-134,418,0,602v30,42,-5,98,-51,96v-19,0,-35,-9,-48,-27v-160,-225,-157,-511,0,-739","w":317},")":{"d":"114,-552v-31,-42,6,-96,51,-95v19,0,35,9,48,27v160,225,156,513,0,739v-34,49,-111,20,-111,-33v0,-13,4,-25,12,-36v132,-184,134,-418,0,-602","w":389},"*":{"d":"549,-561v57,-7,82,84,29,114r-105,60r108,59v57,26,23,115,-33,109v-57,-6,-91,-46,-138,-66r0,114v1,36,-25,58,-58,58v-36,1,-62,-27,-62,-62r0,-108v-46,20,-82,58,-138,65v-57,7,-85,-82,-29,-112r118,-63r-113,-68v-54,-27,-24,-118,32,-111v56,7,91,51,137,73r0,-117v-1,-36,25,-58,58,-58v36,-1,62,27,62,62r0,118v23,-8,79,-61,132,-67","w":657},"+":{"d":"417,-349v1,57,-56,66,-118,60r0,60v1,37,-26,60,-60,60v-34,0,-60,-24,-60,-60r0,-60r-61,0v-36,1,-60,-26,-60,-60v0,-33,25,-60,60,-60r61,0r0,-58v-1,-36,27,-60,60,-60v58,-2,65,56,60,118r58,0v35,-1,60,27,60,60","w":469},",":{"d":"162,-141v33,0,60,25,58,60v-5,87,28,220,-60,222v-34,0,-61,-27,-59,-62v5,-87,-29,-217,61,-220","w":285},"-":{"d":"315,-349v0,34,-25,61,-60,60r-143,0v-36,1,-60,-26,-60,-60v0,-33,25,-60,60,-60r143,0v35,-1,60,27,60,60","w":374},".":{"d":"139,-124v35,0,65,30,65,65v0,33,-31,64,-65,64v-33,0,-64,-31,-64,-64v0,-34,31,-65,64,-65","w":262},"\/":{"d":"269,-641v18,-61,118,-41,116,20v0,8,-2,16,-5,24r-236,600v-17,63,-120,43,-117,-19v0,-8,2,-16,5,-25","w":405},"0":{"d":"545,-311v1,202,-66,323,-251,323v-167,0,-251,-107,-251,-322v0,-215,84,-323,251,-323v167,0,251,107,251,322xm294,-108v113,0,131,-68,131,-203v0,-134,-18,-202,-131,-202v-114,0,-132,68,-131,203v0,135,16,202,131,202","w":599},"1":{"d":"171,-612v42,-27,108,-10,108,36r0,517v1,37,-26,60,-60,60v-34,0,-60,-24,-60,-60r0,-405v-42,31,-100,-8,-100,-54v0,-54,74,-71,112,-94","w":342},"2":{"d":"267,-627v127,-4,214,72,212,199v0,49,-24,95,-82,125r-153,78v-55,30,-82,66,-82,106r265,0v36,-1,63,24,63,61v0,35,-27,59,-63,59r-392,0v-14,-219,72,-293,240,-368v56,-25,84,-49,84,-68v1,-50,-37,-71,-90,-73v-36,-1,-75,17,-113,21v-32,3,-58,-32,-58,-62v0,-71,109,-76,169,-78","w":535},"3":{"d":"425,-354v53,10,94,86,94,153v0,130,-105,207,-239,206v-77,0,-137,-24,-183,-65v-42,-37,-9,-106,42,-104v15,0,28,6,41,18v21,21,55,31,100,31v79,0,119,-29,119,-86v0,-54,-38,-78,-113,-73v-69,-22,-76,-79,-18,-118v59,-23,89,-44,89,-65v-2,-60,-110,-74,-143,-25v-32,48,-111,13,-107,-38v3,-49,48,-73,86,-92v127,-62,284,24,284,155v0,53,-17,87,-52,103","w":572},"4":{"d":"422,3v-33,0,-60,-25,-60,-60r0,-77r-330,0r450,-489r0,369v47,-6,76,21,77,60v0,41,-30,65,-77,60r0,77v1,36,-26,60,-60,60xm362,-254r0,-74r-66,74r66,0","w":614},"5":{"d":"288,-445v143,-1,234,64,234,200v0,158,-105,256,-259,257v-66,0,-124,-14,-176,-33v-61,-22,-39,-118,21,-116v49,11,92,29,155,29v78,0,139,-56,139,-134v0,-55,-39,-83,-116,-83r-225,0v19,-123,9,-186,19,-298r349,0v35,-1,60,27,60,60v0,34,-25,61,-60,60r-238,0v-1,15,-4,35,-7,58r104,0","w":571},"6":{"d":"296,-430v124,-2,212,88,212,212v0,145,-100,226,-244,226v-144,0,-229,-109,-229,-255v0,-184,125,-362,290,-377v41,-4,67,25,67,61v0,35,-18,55,-53,59v-49,6,-91,30,-125,74r82,0xm264,-112v73,0,125,-37,124,-106v0,-61,-31,-92,-92,-92r-136,0v-20,93,13,198,104,198","w":554},"7":{"d":"27,-563v0,-34,24,-60,60,-60r439,0v-117,98,-260,373,-260,568v0,35,-25,56,-56,56v-35,0,-64,-25,-64,-63v0,-129,85,-379,151,-441r-210,0v-37,1,-60,-26,-60,-60","w":501},"8":{"d":"447,-354v39,14,72,96,72,153v0,130,-105,206,-239,206v-134,0,-242,-77,-240,-206v1,-62,32,-128,76,-149v-21,-19,-31,-55,-31,-108v0,-95,97,-174,194,-174v97,0,198,81,198,175v0,49,-10,84,-30,103xm282,-380v42,0,75,-33,75,-77v0,-71,-150,-70,-152,-1v-1,47,34,77,77,78xm282,-113v59,0,118,-32,117,-88v-2,-103,-237,-100,-239,0v0,55,60,88,122,88","w":573},"9":{"d":"269,-628v144,0,230,106,230,255v0,185,-126,361,-290,376v-39,3,-67,-22,-67,-60v0,-35,18,-55,53,-59v49,-5,91,-30,124,-74r-81,0v-124,2,-212,-90,-212,-212v0,-142,98,-226,243,-226xm269,-508v-73,0,-123,37,-123,106v0,61,31,92,92,92r136,0v20,-94,-13,-198,-105,-198","w":551},":":{"d":"139,-424v35,0,65,30,65,65v0,33,-31,64,-65,64v-33,0,-64,-31,-64,-64v0,-34,31,-65,64,-65xm139,-124v35,0,65,30,65,65v0,33,-31,64,-65,64v-33,0,-64,-31,-64,-64v0,-34,31,-65,64,-65","w":255},";":{"d":"139,-424v35,0,65,30,65,65v0,33,-31,64,-65,64v-33,0,-64,-31,-64,-64v0,-34,31,-65,64,-65xm146,-141v32,-1,58,26,58,60r0,151v1,41,-25,70,-61,71v-32,0,-61,-27,-59,-62v6,-87,-28,-218,62,-220","w":256},"<":{"d":"345,-552v40,-34,98,3,97,50v0,18,-8,33,-25,46r-161,121r161,121v50,31,18,110,-35,109v-13,0,-25,-4,-37,-13r-289,-217","w":494},"=":{"d":"417,-438v0,33,-25,60,-60,60r-209,0v-35,1,-60,-27,-60,-60v0,-33,25,-60,60,-60r209,0v35,-1,60,27,60,60xm417,-259v0,33,-25,60,-60,60r-209,0v-35,1,-60,-27,-60,-60v0,-34,25,-61,60,-60r209,0v36,-1,60,26,60,60","w":474},">":{"d":"74,-456v-49,-31,-18,-111,36,-109v13,0,25,4,36,13r289,217r-306,230v-39,34,-99,-3,-97,-50v0,-19,9,-34,25,-46r178,-134","w":469},"?":{"d":"245,-641v119,-1,220,67,214,182v-5,108,-16,111,-101,168v-27,19,-42,44,-48,76v-8,49,-31,73,-66,73v-77,0,-62,-113,-19,-173v16,-22,40,-48,77,-73v60,-42,51,-133,-57,-133v-46,0,-83,9,-109,32v-40,36,-100,-1,-99,-47v0,-18,8,-33,23,-46v49,-39,110,-59,185,-59xm239,-124v35,0,65,30,65,65v0,33,-31,64,-65,64v-33,0,-64,-31,-64,-64v0,-34,31,-65,64,-65","w":502},"@":{"d":"291,-596v174,0,295,124,295,297v0,134,-31,213,-149,216v-61,1,-119,-28,-120,-83v-103,0,-155,-45,-155,-134v0,-81,54,-132,135,-132v59,0,127,49,127,103r0,111v0,11,5,17,15,17v42,0,21,-96,27,-98v1,-108,-65,-177,-175,-177v-107,0,-180,72,-180,181v0,90,77,182,158,182v37,-1,60,26,60,60v0,34,-24,60,-60,60v-155,0,-278,-146,-278,-302v0,-176,126,-301,300,-301xm317,-299v0,-14,-7,-21,-20,-21v-14,0,-21,7,-21,21v0,14,7,21,21,21v13,0,20,-7,20,-21","w":633},"A":{"d":"166,-38v-17,64,-119,44,-117,-18v0,-7,1,-15,4,-23r173,-484v16,-45,52,-68,107,-68v55,0,92,22,108,68r171,484v17,44,-19,81,-59,81v-27,0,-44,-13,-54,-40r-39,-107r-255,0xm418,-263r-86,-240r-85,240r171,0","w":662},"B":{"d":"319,-623v101,-2,192,77,192,178v0,37,-11,70,-34,99v58,35,87,84,87,145v1,134,-95,202,-236,202r-282,0r0,-624r273,0xm319,-378v34,1,73,-32,72,-67v0,-34,-34,-58,-72,-58r-153,0r0,125r153,0xm444,-201v-7,-91,-173,-60,-278,-65r0,147v108,-10,287,39,278,-82","w":622},"C":{"d":"30,-310v0,-195,122,-321,316,-319v99,0,176,30,234,87v40,39,4,104,-44,103v-16,0,-30,-6,-42,-19v-33,-34,-83,-51,-148,-51v-131,0,-196,66,-196,199v0,112,84,198,196,198v61,0,109,-13,139,-44v38,-38,103,-3,101,44v0,17,-6,32,-20,44v-55,51,-129,76,-220,76v-178,0,-316,-142,-316,-318","w":618},"D":{"d":"282,-623v193,-4,359,122,353,308v-6,199,-148,316,-359,316r-220,0r0,-624r226,0xm276,-119v139,0,236,-65,239,-196v3,-120,-107,-190,-233,-188r-106,0r0,384r100,0","w":683},"E":{"d":"477,-59v0,35,-24,61,-60,60r-375,0r0,-624r375,0v36,-1,60,27,60,60v0,35,-24,61,-60,60r-255,0r0,94r155,0v36,-1,60,27,60,60v0,35,-24,61,-60,60r-155,0r0,170r255,0v36,-1,60,27,60,60","w":507},"F":{"d":"482,-563v0,35,-24,61,-60,60r-251,0r0,102r160,0v35,-1,60,27,60,60v0,34,-25,61,-60,60r-160,0r0,222v1,36,-27,60,-60,60v-34,0,-60,-24,-60,-60r0,-564r371,0v36,-1,60,27,60,60","w":502},"G":{"d":"331,-275v0,-35,24,-61,60,-60r260,0r0,89v4,140,-150,254,-295,254v-177,0,-316,-143,-316,-318v0,-194,123,-328,316,-328v97,0,174,34,235,97v38,40,3,103,-45,102v-17,0,-31,-7,-43,-21v-36,-39,-85,-58,-147,-58v-130,-1,-191,80,-196,208v-6,155,176,253,306,165v29,-20,49,-43,59,-70r-134,0v-36,1,-60,-27,-60,-60","w":691},"H":{"d":"534,-623v33,0,60,25,60,60r0,504v1,36,-27,60,-60,60v-35,0,-60,-25,-60,-60r0,-221r-306,0r0,221v1,36,-27,60,-60,60v-35,0,-61,-24,-60,-60r0,-504v-1,-36,26,-60,60,-60v33,0,60,25,60,60r0,163r306,0r0,-163v-1,-35,25,-60,60,-60","w":657},"I":{"d":"112,-623v34,0,61,25,60,60r0,504v1,37,-26,60,-60,60v-34,0,-60,-24,-60,-60r0,-504v-1,-35,27,-60,60,-60","w":235},"J":{"d":"359,-623v33,0,60,25,60,60r0,342v3,127,-113,226,-239,226v-82,0,-131,7,-131,-60v0,-34,26,-64,64,-60v101,10,186,-19,186,-106r0,-342v-1,-36,26,-60,60,-60","w":478},"K":{"d":"393,-599v32,-51,111,-16,109,36v0,13,-5,25,-14,37r-107,140r193,294v31,42,-7,95,-52,94v-20,0,-37,-9,-49,-28r-170,-259r-131,167r0,59v1,36,-27,60,-60,60v-35,0,-60,-25,-60,-60r0,-504v-1,-35,25,-60,60,-60v33,0,60,25,60,60r0,252","w":628},"L":{"d":"504,-59v0,34,-25,61,-60,60r-396,0r0,-564v-1,-35,27,-60,60,-60v33,0,60,25,60,60r0,444r276,0v35,-1,60,27,60,60","w":524},"M":{"d":"112,1v-34,0,-60,-24,-60,-60r0,-564r322,402r322,-402r0,564v1,36,-27,60,-60,60v-35,0,-61,-24,-60,-60r0,-208r-202,260r-202,-260r0,208v1,37,-26,60,-60,60","w":758},"N":{"d":"547,-623v33,0,60,25,60,60r0,562r-435,-369r0,311v1,37,-26,60,-60,60v-34,0,-60,-24,-60,-60r0,-564r435,331r0,-271v-1,-36,26,-60,60,-60","w":670},"O":{"d":"354,-629v189,0,307,129,307,319v0,193,-117,318,-307,318v-186,0,-308,-129,-308,-318v0,-192,116,-319,308,-319xm166,-310v-1,122,66,199,188,198v125,0,187,-66,187,-198v0,-133,-62,-199,-187,-199v-125,0,-188,66,-188,199","w":713},"P":{"d":"374,-623v114,-3,200,93,200,204v0,112,-88,213,-200,213r-202,0r0,147v1,36,-27,60,-60,60v-34,0,-60,-24,-60,-60r0,-564r322,0xm374,-326v47,2,80,-46,80,-93v0,-49,-33,-84,-80,-84r-202,0r1,177r201,0","w":603},"Q":{"d":"349,-629v190,0,310,129,308,319v0,87,-23,158,-68,214v22,30,67,52,69,97v2,50,-68,82,-106,40r-56,-61v-44,20,-94,30,-151,30v-178,0,-303,-142,-303,-320v0,-192,115,-319,307,-319xm345,-110v140,0,192,-61,192,-200v0,-133,-63,-199,-188,-199v-125,0,-187,66,-187,199v0,115,70,200,183,200","w":724},"R":{"d":"370,-623v114,-3,200,92,199,204v-1,104,-62,183,-148,203r111,116v41,36,5,104,-44,102v-16,0,-30,-6,-42,-19r-278,-291r0,249v1,36,-27,60,-60,60v-35,0,-61,-24,-60,-60r0,-564r322,0xm168,-323v117,-10,281,43,281,-96v0,-48,-47,-84,-94,-84r-187,0r0,180","w":622},"S":{"d":"298,-507v-59,0,-125,12,-130,53v4,54,179,73,247,94v69,21,127,82,127,160v0,112,-110,208,-256,208v-66,0,-129,-16,-193,-38v-61,-21,-40,-124,21,-116v58,7,114,34,172,34v79,0,132,-33,132,-81v0,-39,-47,-66,-141,-79v-153,-22,-230,-83,-230,-182v0,-175,275,-207,421,-142v57,26,33,121,-25,115v-45,-5,-77,-26,-145,-26","w":588},"T":{"d":"576,-563v0,35,-24,61,-60,60r-139,0r0,444v1,36,-27,60,-60,60v-35,0,-61,-24,-60,-60r0,-444r-158,0v-36,1,-60,-26,-60,-60v0,-33,25,-60,60,-60r417,0v36,-1,60,27,60,60","w":605},"U":{"d":"530,-623v33,0,60,25,60,60r0,311v2,162,-108,256,-271,256v-163,0,-271,-94,-271,-256r0,-311v-1,-36,26,-60,60,-60v33,0,60,25,60,60r0,311v0,91,50,136,151,136v101,0,151,-45,151,-136r0,-311v-1,-36,26,-60,60,-60","w":648},"V":{"d":"504,-598v16,-65,120,-44,117,18v0,7,-1,15,-4,23r-174,484v-16,45,-52,68,-107,68v-55,0,-91,-23,-107,-68r-171,-484v-17,-44,19,-81,58,-81v27,0,46,13,55,40r166,465","w":651},"W":{"d":"944,-598v16,-65,120,-44,117,18v0,7,-1,15,-4,23r-174,484v-16,45,-52,68,-107,68v-55,0,-91,-23,-107,-68r-112,-318r-114,318v-16,45,-52,68,-107,68v-55,0,-91,-23,-107,-68r-171,-484v-17,-44,19,-81,58,-81v27,0,46,13,55,40r166,465r157,-439v26,-82,97,-82,126,0r157,439","w":1091},"X":{"d":"420,-598v30,-50,111,-20,109,35v0,12,-4,24,-12,35r-156,217r156,217v32,40,-5,97,-50,96v-19,0,-35,-9,-47,-26r-133,-184r-132,184v-30,50,-111,20,-110,-34v0,-13,4,-25,12,-36r156,-217r-156,-217v-32,-40,5,-98,51,-96v19,0,35,9,47,26r132,185","w":576},"Y":{"d":"494,-597v30,-50,112,-21,110,34v0,12,-3,24,-11,35r-204,292r0,177v1,36,-27,60,-60,60v-34,0,-60,-24,-60,-60r0,-171r-204,-299v-31,-41,7,-95,51,-94v20,0,36,9,48,27r163,239","w":632},"Z":{"d":"20,-563v0,-33,25,-60,60,-60r465,0r-315,504r272,0v35,-1,60,27,60,60v0,34,-25,61,-60,60r-499,0r314,-504r-237,0v-36,1,-60,-26,-60,-60","w":595},"[":{"d":"311,78v0,33,-25,60,-60,60r-200,0r0,-784r200,0v35,-1,60,27,60,60v0,33,-25,60,-60,60r-80,0r0,544r80,0v36,-1,60,26,60,60","w":350},"\\":{"d":"38,-563v-20,-44,18,-83,58,-83v25,0,44,12,54,37r260,640v19,44,-17,84,-58,84v-25,0,-43,-13,-53,-38","w":435},"]":{"d":"51,-586v0,-33,25,-60,60,-60r200,0r0,784r-200,0v-35,1,-60,-27,-60,-60v0,-34,25,-61,60,-60r80,0r0,-544r-80,0v-35,1,-60,-27,-60,-60","w":370},"^":{"d":"153,-353v-31,49,-111,18,-109,-36v0,-13,4,-25,13,-36r217,-289r229,306v34,39,-4,99,-49,97v-19,0,-34,-8,-47,-25r-133,-178","w":570},"_":{"d":"661,63v0,33,-25,60,-60,60r-492,0v-36,1,-60,-27,-60,-60v0,-34,24,-60,60,-60r492,0v35,-1,60,27,60,60","w":681},"`":{"d":"67,-619v-33,-39,5,-97,50,-96v47,2,64,55,88,83v33,39,-5,96,-50,95v-47,-1,-64,-54,-88,-82","w":295},"a":{"d":"277,-513v122,-2,220,67,220,184r0,331r-269,0v-112,1,-184,-65,-184,-178v0,-119,90,-187,213,-186v45,0,98,26,120,51v0,-55,-33,-82,-100,-82v-41,0,-75,-28,-76,-65v0,-37,25,-55,76,-55xm377,-165v2,-49,-66,-77,-120,-77v-62,0,-93,22,-93,66v0,82,133,53,213,58r0,-47","w":558},"b":{"d":"244,-501v135,-2,225,131,225,264v0,170,-163,293,-321,215v-30,43,-108,20,-108,-38r0,-486v-1,-35,27,-60,60,-60v34,0,61,25,60,60r0,77v20,-21,48,-32,84,-32xm349,-234v-1,-74,-29,-144,-114,-144v-50,0,-75,21,-75,62r0,124v-5,35,49,73,79,74v68,2,111,-46,110,-116","w":519},"c":{"d":"401,-144v55,-3,83,80,33,110v-42,26,-91,43,-148,43v-151,2,-251,-106,-251,-256v0,-141,108,-259,251,-256v61,2,156,20,161,84v3,32,-27,65,-60,63v-35,-2,-62,-27,-101,-27v-77,0,-131,58,-131,136v0,91,44,136,131,136v49,0,75,-30,115,-33","w":484},"d":{"d":"397,-606v34,0,61,25,60,60r0,486v5,58,-77,80,-107,38v-157,79,-321,-45,-321,-215v0,-133,91,-266,224,-264v37,0,65,11,84,32r0,-77v-1,-35,27,-60,60,-60xm258,-118v31,-1,82,-38,79,-74v-7,-85,28,-186,-75,-186v-85,0,-112,72,-114,144v-2,69,42,117,110,116","w":520},"e":{"d":"304,-507v170,0,249,149,233,341r-349,0v21,37,59,55,113,55v40,0,66,28,66,62v0,35,-27,58,-66,58v-149,0,-251,-104,-251,-253v0,-158,96,-263,254,-263xm410,-286v-13,-67,-49,-101,-106,-101v-75,0,-119,34,-131,101r237,0","w":582},"f":{"d":"98,-489r-4,0r4,0xm270,-648v50,0,83,14,83,61v0,43,-35,59,-83,59v-34,0,-51,13,-51,39r74,0v35,-1,60,26,60,60v0,33,-25,60,-60,60r-79,0r0,310v1,36,-25,60,-60,60v-33,0,-60,-24,-60,-60r0,-310v-32,-1,-55,-28,-55,-60v0,-33,23,-63,59,-60v13,-106,71,-159,172,-159","w":381},"g":{"d":"399,-494v53,-3,120,50,120,100r0,275v3,141,-84,301,-215,301v-35,0,-58,-30,-58,-61v0,-33,17,-52,50,-58v37,-7,64,-29,82,-68v-182,24,-287,-60,-287,-253v0,-130,102,-239,232,-236r76,0xm211,-258v1,98,20,137,109,137v33,0,59,-10,79,-30r0,-185v1,-25,-46,-38,-76,-38v-66,0,-113,51,-112,116","w":580},"h":{"d":"174,-469v136,-59,288,24,288,165r0,245v1,36,-27,60,-60,60v-35,0,-61,-24,-60,-60r0,-245v1,-43,-36,-65,-78,-65v-43,-1,-90,27,-90,67r0,243v1,37,-26,60,-60,60v-34,0,-60,-24,-60,-60r0,-504v-1,-36,27,-60,60,-60v35,0,61,24,60,60r0,94","w":516},"i":{"d":"116,-651v33,0,60,29,60,61v1,34,-28,60,-60,60v-34,0,-60,-28,-60,-60v0,-33,27,-61,60,-61xm116,-493v34,0,60,24,60,60r0,374v1,36,-27,60,-60,60v-35,0,-60,-25,-60,-60r0,-374v0,-35,25,-60,60,-60","w":240},"j":{"d":"176,-651v33,0,60,29,60,61v1,34,-28,60,-60,60v-34,0,-60,-28,-60,-60v0,-33,27,-61,60,-61xm180,-493v34,0,60,24,60,60r0,408v-2,97,-75,195,-169,202v-33,2,-59,-31,-58,-62v0,-31,16,-51,47,-57v28,-5,60,-49,60,-83r0,-408v0,-35,25,-60,60,-60","w":301},"k":{"d":"386,-416v-2,42,-29,46,-56,83r149,243v30,42,-10,93,-53,92v-21,0,-37,-10,-49,-29r-137,-223v-17,18,-45,44,-82,78r0,113v1,37,-26,60,-60,60v-34,0,-60,-24,-60,-60r0,-506v-1,-35,27,-60,60,-60v34,0,61,25,60,60r0,228r124,-122v37,-43,107,-5,104,43","w":509},"l":{"d":"116,-624v33,0,60,25,60,60r0,505v1,36,-27,60,-60,60v-35,0,-60,-25,-60,-60r0,-505v-1,-35,25,-60,60,-60","w":239},"m":{"d":"670,-502v109,-2,188,78,188,187r0,256v1,36,-27,60,-60,60v-34,0,-60,-24,-60,-60r0,-256v-2,-60,-59,-72,-132,-70v-95,3,-124,3,-85,4r0,323v1,36,-28,59,-60,59v-35,0,-61,-24,-60,-60r0,-256v-2,-60,-59,-72,-132,-70v-95,3,-124,3,-86,4r0,322v1,37,-26,60,-60,60v-34,0,-60,-24,-60,-60r0,-442","w":918},"n":{"d":"333,-502v109,-2,188,78,188,187r0,256v1,36,-27,60,-60,60v-35,0,-61,-24,-60,-60r0,-256v-2,-60,-59,-72,-132,-70v-95,3,-124,3,-86,4r0,322v1,37,-26,60,-60,60v-34,0,-60,-24,-60,-60r0,-442","w":581},"o":{"d":"294,-503v145,0,251,113,251,256v0,149,-102,256,-251,256v-150,0,-250,-103,-250,-256v0,-142,108,-256,250,-256xm294,-111v85,0,131,-52,131,-136v0,-80,-53,-136,-131,-136v-76,0,-130,59,-130,136v0,91,43,136,130,136","w":599},"p":{"d":"147,-483v159,-69,320,57,320,222v0,171,-126,306,-306,251r0,115v1,35,-27,60,-60,60v-33,0,-60,-25,-60,-60r0,-548v-5,-56,74,-80,106,-40xm246,-119v68,1,101,-68,101,-142v0,-71,-45,-121,-113,-121v-49,0,-73,24,-73,71r0,171v23,14,52,21,85,21","w":519},"q":{"d":"372,-483v32,-40,106,-16,106,40r0,548v1,35,-27,60,-60,60v-33,0,-60,-25,-60,-60r0,-115v-178,54,-306,-79,-306,-251v0,-164,158,-291,320,-222xm172,-261v0,74,33,143,101,142v33,0,61,-7,85,-21r0,-171v0,-47,-24,-71,-73,-71v-68,-1,-113,50,-113,121","w":541},"r":{"d":"305,-507v50,0,88,22,87,67v-1,42,-33,61,-81,54v-50,-8,-136,63,-136,114r0,213v1,36,-27,60,-60,60v-34,0,-60,-24,-60,-60r0,-376v-1,-35,27,-60,60,-60v33,0,53,16,59,48v23,-33,78,-60,131,-60","w":420},"s":{"d":"282,-392v-62,0,-98,1,-104,40v2,29,219,58,224,70v50,21,75,61,75,118v2,169,-216,200,-372,141v-63,-23,-43,-123,18,-117v40,4,94,27,121,27v46,0,111,-14,111,-49v-7,-34,-209,-48,-221,-67v-53,-24,-79,-62,-79,-114v0,-154,220,-202,360,-143v59,25,36,119,-22,116v-37,-2,-65,-22,-111,-22","w":528},"t":{"d":"156,-603v54,-1,66,49,60,108r86,0v36,-1,60,26,60,60v0,33,-25,60,-60,60r-86,0r0,216v-15,92,84,14,125,58v51,55,10,110,-91,110v-103,0,-154,-56,-154,-168r0,-217v-32,-1,-52,-27,-53,-59v0,-19,18,-39,53,-60r0,-48v-1,-35,27,-60,60,-60","w":408},"u":{"d":"448,-499v35,0,61,24,60,60r0,442r-269,0v-109,1,-188,-77,-188,-186r0,-256v-1,-36,27,-60,60,-60v34,0,60,24,60,60r0,256v-5,97,129,58,217,67r0,-323v-1,-36,27,-60,60,-60","w":572},"v":{"d":"376,-455v16,-65,119,-46,117,17v0,7,-1,15,-4,23r-113,304v-45,144,-195,145,-242,0r-99,-305v-15,-44,21,-80,59,-80v27,0,46,13,55,41r111,324","w":541},"w":{"d":"716,-455v16,-65,119,-46,117,17v0,7,-1,15,-4,23r-113,304v-45,144,-200,147,-242,0r-46,-141r-52,141v-34,100,-115,142,-192,81v-23,-18,-39,-46,-50,-81r-99,-305v-15,-44,21,-80,59,-80v27,0,46,13,55,41r111,324r112,-313v23,-73,96,-70,121,3r107,310","w":881},"x":{"d":"366,-469v30,-52,111,-21,110,33v0,12,-3,24,-11,35r-108,154r108,154v31,41,-7,96,-51,95v-19,0,-36,-8,-48,-26r-82,-118r-81,118v-30,50,-112,21,-110,-34v0,-12,3,-24,11,-35r107,-154r-107,-154v-31,-41,7,-96,51,-95v19,0,35,9,48,27r81,117","w":532},"y":{"d":"428,-457v18,-64,119,-42,117,20v0,7,-2,15,-5,24r-219,557v-18,62,-120,41,-117,-19v1,-28,19,-50,28,-73v1,-1,-61,-157,-187,-465v-18,-43,17,-83,57,-83v26,0,44,13,54,38r139,341","w":591},"z":{"d":"42,-435v0,-34,25,-61,60,-60r417,0r-267,376r203,0v36,-1,60,27,60,60v0,35,-24,61,-60,60r-448,0r284,-376r-189,0v-35,1,-60,-27,-60,-60","w":562},"{":{"d":"174,-422v0,-166,68,-224,236,-224v35,0,60,27,60,60v0,33,-25,60,-60,60v-54,0,-121,-16,-116,48v7,101,-9,179,-66,224v56,45,73,123,66,224v-4,64,62,48,116,48v36,0,60,26,60,60v0,33,-25,60,-60,60v-141,0,-238,-38,-236,-168v1,-66,1,-131,-46,-146v-10,-4,-45,-10,-105,-15r0,-126v60,-6,95,-11,105,-15v31,-13,46,-43,46,-90","w":502},"|":{},"}":{"d":"83,-646v143,0,240,40,238,168v-1,66,-1,131,46,146v10,4,45,9,105,14r0,128v-48,3,-109,-1,-130,28v-24,22,-22,82,-21,132v1,130,-97,168,-238,168v-34,0,-60,-26,-60,-58v0,-35,24,-62,60,-62v54,0,122,15,118,-48v-7,-100,9,-182,64,-226v-55,-45,-70,-123,-64,-222v4,-64,-63,-48,-118,-48v-35,0,-60,-27,-60,-60v0,-33,25,-60,60,-60","w":513},"~":{"d":"620,-351v-13,92,-83,148,-166,146v-49,10,-173,-94,-217,-94v-41,0,-61,11,-61,34v1,34,-26,60,-58,60v-35,0,-62,-25,-62,-60v0,-96,83,-154,181,-154v91,0,149,66,213,92v25,0,43,-14,52,-43v19,-65,127,-42,118,19","w":683},"\u0131":{},"\t":{},"\u00a0":{}}});


